Filename,0,1,2,3,4,5,6,7,8,9,10,11,12,13,14,15,16,17,18,19,20,21,22,23,24,25
28.wav,-580.8789,115.22364,15.318973,31.279287,17.988214,5.256765,-5.390493,6.711666,2.7734196,2.7966244,-2.8782647,-0.38188544,-5.3677745,125.012856,84.077866,24.145555,26.235401,20.91696,12.164499,15.651846,9.862374,8.668188,8.708022,7.5956235,10.063101,9.008025
30.wav,-580.95056,115.4417,15.418888,31.41444,17.996742,5.303187,-5.3830495,6.772942,2.7727258,2.835827,-2.9223614,-0.41372496,-5.4157624,125.01454,83.91506,24.074612,26.121923,20.833368,12.171346,15.7371855,9.787956,8.637162,8.7512455,7.612542,10.058934,9.00079
36.wav,-572.7886,111.368324,10.172045,26.96257,13.83109,3.151526,-5.6022267,5.504691,-2.4889097,0.391467,-5.616608,4.1381536,-1.6040581,128.1608,82.202934,33.284805,18.766754,13.804071,12.640682,12.723204,10.60043,9.021395,9.876261,10.437687,9.282254,8.263548
9.wav,-598.7486,109.433556,20.036419,24.895813,19.323107,9.383337,-7.663574,4.7748847,1.6926819,1.4360453,0.41432124,0.34295708,-6.313865,124.350845,86.81732,20.377861,19.933426,18.268124,12.4606495,15.253509,9.8250885,9.455122,9.935232,6.739247,9.231262,11.57796
16.wav,-547.26984,108.96307,16.37278,28.410503,11.1287,-2.526328,-4.5372987,6.2660947,-2.979559,3.482055,-5.1723,7.6186976,1.2293593,118.10848,72.30761,26.735168,19.858885,17.156792,12.323198,14.942352,13.315815,8.8432045,8.530368,10.291992,8.748182,9.09133
60.wav,-579.9466,102.17669,19.431152,25.416016,14.563435,2.2032924,-3.4830763,2.1486247,-0.9162291,1.8479402,-2.4439037,3.363802,-0.09940307,117.62262,81.52671,22.707884,21.043932,17.348385,13.42561,14.791536,10.39451,10.393872,7.90576,7.7321696,7.558921,7.2193375
43.wav,-575.1469,97.39114,20.697716,24.277632,13.720978,9.58144,0.53919905,-0.6203381,-7.5445976,5.0135446,-3.442606,2.7479844,-3.91676,114.34163,77.879265,19.620703,21.734388,16.328743,15.882722,11.26817,11.134134,11.903359,8.338116,10.544293,8.291766,7.473996
21.wav,-578.5754,102.40956,9.230613,19.63813,14.14076,7.4870024,-2.7825966,4.5760074,-0.97229725,2.5482554,-4.2794843,4.0149727,0.20070243,131.52892,86.0482,25.233631,19.20976,18.453918,10.979427,12.927972,9.688893,9.138345,7.0332174,9.29673,7.2630434,7.6318445
52.wav,-595.7266,79.38215,26.736338,28.798658,11.890101,3.51366,0.8984176,4.381874,-0.26122844,8.455146,-4.095913,2.1245694,-6.250653,103.90773,71.3667,23.926098,19.78755,17.346758,16.372082,12.324812,8.396354,5.967009,6.7442856,6.4302464,5.9103675,9.873052
73.wav,-557.29065,103.20058,21.88441,23.696764,14.325085,2.0169163,-5.7633557,0.13221918,-5.3299103,0.613269,-7.5774946,3.5643003,-0.6387248,129.96446,89.63654,19.735312,20.409847,15.831688,11.818622,14.520741,9.895144,13.452278,10.881759,10.655588,7.060822,7.3274364
54.wav,-595.73444,79.5565,26.819607,28.799715,11.9669285,3.5750349,0.9822533,4.415467,-0.14446524,8.44482,-4.02029,2.1195223,-6.2425156,103.940674,71.29128,23.966959,19.78362,17.333008,16.404264,12.471946,8.4845495,5.9553165,6.714929,6.3861227,5.9255996,9.901033
40.wav,-567.46185,105.15253,16.350082,27.153976,6.366155,-0.7876979,-1.8449473,6.2415657,-6.4402623,2.2777278,-2.5785685,8.433333,-1.8172773,121.13899,77.61134,27.636333,20.766861,16.258722,16.872225,15.143412,11.346399,9.153979,9.534265,8.74924,10.160844,8.207367
22.wav,-568.1761,104.5737,22.195463,28.4064,4.6795883,-0.15459295,0.8457595,7.1368756,-6.147668,5.060907,-2.8450754,6.2768345,-4.017863,119.63968,79.740746,35.11061,22.054771,18.244877,16.892773,9.408424,8.033839,9.977923,7.024752,8.329836,8.591717,8.124857
70.wav,-562.9509,110.89288,17.609179,19.66692,12.168729,-4.898424,-3.1587203,6.5761704,2.523312,-0.4382698,-0.7873021,3.736452,0.61043423,119.3006,85.70297,21.275707,17.34096,20.70501,17.644966,13.570176,10.16752,7.7856617,8.905485,7.2990766,8.306489,10.729147
24.wav,-568.0279,104.27117,22.095673,28.189466,4.7124496,-0.27873155,0.8389304,7.0284977,-6.114762,4.9801545,-2.8038282,6.2258663,-4.0089264,119.629425,79.98571,35.120853,22.129835,18.17049,16.79192,9.361942,8.049522,9.969763,7.0226717,8.282494,8.553652,8.10565
69.wav,-574.13574,109.215546,19.94918,25.255009,16.742579,3.2949426,-3.6760237,2.866603,1.1467369,0.9863007,4.1930504,2.0824375,-4.8731613,114.60218,81.616615,21.201557,19.222435,15.097243,9.957109,13.543004,8.840264,7.9680295,8.227966,6.3696923,7.4289584,9.40859
12.wav,-577.4773,93.634514,13.871762,27.098635,10.5344095,2.8754938,-3.7117383,5.6366887,-6.3200393,6.899701,-4.1876793,9.183919,-4.409152,121.860565,76.47634,21.79292,15.9044895,14.396259,14.228104,14.050792,8.797133,8.001978,9.344605,8.0131035,7.306709,8.690831
6.wav,-571.3218,90.03426,12.749698,26.016369,13.284025,2.3793693,-0.99656713,2.5102332,-4.857919,6.6684346,-1.4524935,3.4135747,-4.5799475,118.181526,78.261505,24.046669,18.121689,19.14693,11.737005,13.225931,9.388691,7.709651,8.01938,8.102484,8.06032,11.1149435
58.wav,-579.7383,102.26039,19.588541,25.515146,14.657566,2.2649465,-3.4305546,2.2000835,-0.8677116,1.8718303,-2.4694598,3.3732285,-0.090793215,117.4084,81.41157,22.754965,20.944202,17.326408,13.412157,14.731549,10.386362,10.371592,7.946664,7.6889553,7.5173516,7.2172
31.wav,-578.64435,112.93167,20.492317,30.74619,16.78191,1.7356075,-8.404537,4.048919,0.09308987,0.42422035,-1.6711787,2.6428535,-1.5992179,114.978424,78.47276,29.03708,17.910004,19.896963,16.570633,14.531012,12.017936,9.416274,8.717365,7.741896,7.177808,8.126051
46.wav,-560.5182,113.55874,20.153412,28.793362,13.650432,1.5377266,-3.943296,6.191472,-4.39848,1.5150368,-5.1797605,6.7255983,-0.8265274,120.777084,82.9048,20.477882,21.87307,17.217043,11.441713,12.348806,9.974865,10.446534,8.592546,8.264594,7.502624,6.9931383
90.wav,-586.568,106.48292,18.217472,28.1419,24.543882,8.362783,-9.105881,-1.6425844,2.0397208,2.5939672,-0.4069906,1.8766208,-2.9678543,113.61226,79.650734,19.479446,21.37232,22.492287,9.969169,18.372742,11.105163,7.3385367,7.948306,7.5544424,7.9232903,8.417084
3.wav,-590.4673,96.22802,17.591095,28.047394,7.6918764,-0.3040743,-1.3634312,6.5710735,-4.7687182,6.657294,-2.6688926,4.1294723,-1.0850228,125.102646,79.470604,26.37289,20.025465,15.369937,14.276098,11.0675535,9.676616,8.0198765,7.273165,7.432515,7.4042735,6.6694565
85.wav,-566.81696,97.29479,19.346296,31.327345,7.561306,3.5255103,-3.1306424,4.2143006,-10.335377,5.607689,-6.382154,7.527286,-3.5521045,114.9669,73.24809,22.563698,21.645319,17.715553,14.611343,13.513177,10.415985,11.163941,7.897037,8.757181,7.8901663,7.9831586
55.wav,-582.87213,121.71922,20.115793,34.955235,22.904455,8.493624,-13.506989,3.6991959,0.2625051,-2.8365686,-4.569731,3.013492,-1.9792813,119.53616,79.309105,25.747091,22.052006,22.152092,12.163517,18.07525,9.527145,9.349276,11.008443,8.452296,7.8842926,8.345793
91.wav,-594.09656,103.78636,22.270805,23.350746,6.0696607,5.731969,0.12248938,6.882192,-5.7401323,0.90276045,-4.191177,3.8153548,-1.7932178,125.4536,83.12823,23.373035,18.335342,17.88583,13.437209,12.256211,11.382432,9.782216,10.551211,8.173992,9.386063,7.7651467
64.wav,-556.36005,111.16358,23.97996,23.081152,3.6405935,-1.0099244,2.2284384,3.7482817,-5.390105,3.8142498,-1.6515663,5.407419,-5.386593,110.923584,80.31817,35.270718,19.807878,18.41082,19.14367,10.114384,9.457558,7.5131226,9.079406,6.915133,10.22255,9.553521
48.wav,-560.8141,113.67759,20.064472,28.876001,13.559863,1.5621454,-4.0269537,6.235475,-4.4396725,1.5355753,-5.2087483,6.790542,-0.8140079,121.03889,82.91075,20.436785,21.885475,17.172047,11.427606,12.387349,10.027047,10.488678,8.584066,8.214515,7.5498753,7.0264277
100.wav,-578.72174,108.549736,16.582935,26.457928,9.1667185,4.0328712,-4.1809974,5.127524,-3.758805,6.8981853,-4.5115237,5.2104836,-4.8118763,139.90195,88.550896,18.275635,23.901197,13.978467,12.204915,13.200018,10.894347,10.39946,9.751346,8.623077,7.6125093,9.524892
79.wav,-590.4624,104.676895,20.540895,28.700424,15.571289,4.5277433,-5.3655505,6.58406,2.8972201,-1.7831613,-0.41183338,5.0014615,0.018732969,108.30787,77.94465,27.263138,21.200188,20.897367,15.036863,15.312152,10.895965,7.7730517,9.095806,8.000021,8.796801,8.658547
97.wav,-582.21967,97.46494,11.937352,26.502724,20.031578,0.8899706,-3.8716156,4.6264687,3.893914,4.7583175,1.536083,0.18625475,-3.8135111,118.45254,82.51664,24.613317,22.649216,22.429237,15.639816,14.905089,7.774692,6.49546,6.7801085,7.5420976,7.364353,10.166864
82.wav,-584.0206,105.28204,17.33712,27.09527,24.279474,9.306887,-9.944401,0.9178343,4.7885203,2.6979508,-1.7938421,0.87972146,0.6417556,121.282196,83.10406,29.297657,20.37173,21.136118,11.535015,19.15546,10.9537,6.6348667,7.713653,7.94455,9.506639,7.650033
67.wav,-574.2138,109.47865,20.110312,25.491459,16.826855,3.4355032,-3.6377523,2.9850695,1.2730504,1.1402597,4.244472,2.1456163,-4.7984967,114.60087,81.43769,21.231548,19.090029,14.969806,9.9792385,13.558145,8.847598,8.004069,8.2644005,6.2985587,7.412347,9.442905
99.wav,-582.2502,97.55068,12.115913,26.646112,20.067226,0.9639962,-3.7975829,4.577846,3.7957134,4.7137737,1.5230995,0.21842913,-3.75864,118.38942,82.36145,24.715979,22.605389,22.436804,15.69651,14.873296,7.769187,6.533442,6.8599215,7.5831466,7.3899946,10.184685
148.wav,-407.31464,131.20494,-3.9890928,10.830707,35.168823,11.674355,-8.969941,-7.2381806,5.257164,2.8048086,-12.356557,-8.137374,0.47725353,106.9558,76.53136,34.004253,17.308558,25.043444,12.07871,11.830133,9.363247,10.2994,8.028606,10.803677,12.07242,8.30148
133.wav,-372.25903,142.179,-4.9870553,13.309437,38.627697,6.0632496,-14.664778,-4.8551383,2.329661,-5.55942,-5.8663964,-2.9630694,-5.3353086,108.707016,76.99658,27.626154,19.033813,26.112492,14.527661,12.075913,10.90288,13.424777,8.322303,9.466602,8.870542,11.479499
96.wav,-566.4061,113.80936,26.494656,21.80262,8.850754,3.5801556,-1.1664704,1.8098705,-5.317292,3.3033824,-2.4528844,2.3123798,-3.0176785,119.80212,86.62282,26.936466,22.080645,15.19129,12.430766,13.670336,9.883165,11.680618,9.747733,8.396155,8.303478,7.734326
150.wav,-407.3696,132.08078,-3.9721537,11.032012,35.28694,11.655775,-8.923908,-7.1543303,5.378418,2.8567312,-12.2974825,-7.95609,0.53852254,106.45936,76.0036,34.154274,17.231083,25.028784,12.085839,11.905763,9.490923,10.458745,8.028104,10.938776,12.380771,8.244063
93.wav,-594.1366,103.882225,22.142342,23.225113,5.9490337,5.775531,0.13159935,6.935096,-5.7754083,0.92664206,-4.202508,3.8548388,-1.7970794,125.68231,83.222435,23.361078,18.275274,17.965343,13.459458,12.257093,11.370938,9.735365,10.553032,8.113603,9.367539,7.807935
151.wav,-393.42218,141.05731,-14.729111,10.229657,39.21984,9.148714,-19.584814,-10.793021,1.6013426,2.4610345,-5.308295,-8.492104,2.2888582,109.82502,74.627144,22.952127,20.9351,24.62053,14.02504,13.1615505,13.114583,11.663776,7.6429577,7.4788857,13.643026,8.564031
121.wav,-397.26477,154.17448,-19.280235,8.882475,39.1128,9.16818,-9.163727,-15.187664,-2.8397503,10.084353,-5.308492,-12.608022,-3.4582465,116.32016,78.165184,23.954716,21.62458,22.975494,12.745054,10.03061,14.954207,13.034514,8.787862,7.956245,10.991673,8.737703
144.wav,-391.188,163.88316,-18.909441,6.1266756,40.948185,15.111156,-10.573302,-16.131683,1.7463555,15.387745,-10.017865,-7.1247077,0.065339364,124.746574,78.61318,30.173607,21.373339,22.028822,12.209524,12.747845,13.288877,14.890409,11.409753,11.392624,9.4631,8.502568
153.wav,-392.75693,141.542,-14.62725,10.2044325,39.35412,9.222655,-19.69445,-10.871961,1.6964903,2.5045645,-5.4184437,-8.626698,2.1851358,108.857346,73.87493,22.977146,20.94346,24.451134,14.033931,13.068269,13.074382,11.682123,7.6867504,7.462544,13.620947,8.565365
18.wav,-547.55255,109.17808,16.31564,28.51571,11.071221,-2.45482,-4.571135,6.3363295,-2.9916286,3.5875754,-5.171529,7.6898894,1.2338797,118.38613,72.291435,26.72375,19.869804,17.142605,12.328141,14.961226,13.398231,8.918507,8.49309,10.348964,8.766909,9.134053
78.wav,-569.75085,104.9811,21.806572,34.3537,11.186126,2.2761028,-6.2620654,5.7468514,-7.581585,0.48970258,-9.551689,4.799835,-2.1804326,115.5157,74.0921,22.956469,21.680046,18.87388,14.845316,13.391823,9.272884,11.496783,9.219339,10.37397,8.543292,8.739014
76.wav,-569.9826,105.05986,21.58645,34.468857,11.082143,2.340732,-6.378023,5.8068,-7.6959677,0.49615744,-9.623384,4.893768,-2.1764295,115.91531,74.22713,22.892523,21.703365,18.818867,14.861647,13.4271345,9.336607,11.525053,9.208489,10.42223,8.561781,8.7372675
117.wav,-564.7319,117.42103,13.333635,29.21765,19.402348,-0.1942266,-12.047534,1.4077442,2.5266988,-0.06665604,-4.889932,-0.54408157,-3.552044,122.405785,83.4366,29.628633,22.64061,23.123215,15.766715,16.989895,12.2198105,7.073,8.723984,9.153124,7.842284,7.8296714
139.wav,-411.475,146.09036,-13.987135,13.845865,51.681282,9.821151,-21.018946,-8.776731,6.2630343,-3.230196,-13.022683,-2.1166239,3.7966914,101.58439,69.93739,26.896456,19.546347,26.938473,9.704898,12.904046,11.973813,10.467909,8.971938,11.49176,8.215501,8.3400135
49.wav,-555.0053,120.346176,21.971401,26.690361,10.547069,5.8875155,-4.8648233,1.5342245,-7.321259,7.2456527,-3.8594375,7.381725,-5.6166887,122.42842,82.54046,21.522305,20.40663,18.874727,14.412262,11.574449,10.414894,10.012922,7.6844273,9.220053,8.381073,9.158745
39.wav,-560.703,130.62785,26.750929,27.280464,12.337187,2.8449197,-5.305948,2.2169454,-1.7237594,1.7353708,1.2710404,3.3283577,-4.5194616,110.30856,78.15157,25.215336,20.640764,15.543061,14.231082,12.974399,10.103992,10.356882,8.397908,6.496126,7.195536,9.116006
63.wav,-534.21906,114.04732,6.5973315,28.526352,7.2994323,-3.060138,-6.949701,5.682236,-9.045781,1.8783189,-9.272317,13.057564,0.7175261,127.166824,76.412796,24.58633,21.44067,14.914228,12.755474,12.918338,9.090217,10.644866,9.334204,10.705502,9.649929,7.3392806
118.wav,-569.1862,115.94532,23.325241,36.583473,17.326204,-1.6431961,-6.1372256,8.191889,2.9801104,1.2287835,-2.7940733,2.3757336,-3.4865217,109.88155,76.18577,26.704884,24.85177,21.97386,16.375208,18.511131,9.433459,13.500439,11.21951,9.795893,8.9805155,6.917911
129.wav,-356.3085,154.69664,-13.782247,17.229149,43.601727,16.696198,-5.2690997,-21.796478,-2.0068762,13.471366,-12.804262,-14.715245,1.6290233,112.083626,73.34558,26.813778,15.510527,26.04332,15.469692,12.0104885,16.38599,12.710253,9.460008,10.379179,11.188411,8.296413
126.wav,-371.6832,137.56662,-17.876293,29.400366,33.409344,8.938632,-6.4805713,-16.031595,3.6345403,2.4333797,-9.253469,-6.771256,-8.315513,109.5299,70.31407,32.712654,28.541609,26.70359,14.5134325,12.699486,15.075434,11.300195,8.666167,9.105466,10.056649,12.215695
111.wav,-545.38885,100.23379,18.249111,22.477772,12.485456,2.1562295,-0.044140805,2.803359,-4.596518,-0.07003675,-1.592777,2.888172,-1.9021767,112.737465,78.38458,23.910917,20.574654,17.198748,14.8021965,13.62771,12.111595,12.710192,8.025295,9.881767,7.185693,8.450133
102.wav,-579.0734,108.53181,16.41711,26.413408,9.020298,3.9991505,-4.3366747,5.094732,-3.8291461,6.902228,-4.528098,5.222138,-4.8368855,140.32678,88.69708,18.251257,23.967714,13.976546,12.239685,13.205055,10.885703,10.383184,9.7829275,8.6144,7.5758476,9.472682
120.wav,-569.24567,116.029305,23.354914,36.63475,17.36422,-1.6089096,-6.1072087,8.22,2.9623733,1.2333486,-2.8098185,2.3697581,-3.5132391,109.85186,76.0242,26.636335,24.79328,21.974262,16.420462,18.543236,9.477532,13.523222,11.202917,9.808812,8.951854,6.9352427
37.wav,-560.61115,130.70499,26.857395,27.400135,12.494363,2.9700904,-5.2149386,2.2910423,-1.6544913,1.8046547,1.3113304,3.3336887,-4.5264688,110.20444,78.04635,25.121233,20.533085,15.464155,14.282461,13.060824,10.154772,10.410656,8.435526,6.5507216,7.200781,9.108396
114.wav,-513.25543,128.81233,0.23434748,17.602835,15.375433,-0.8030501,-5.874076,1.6669651,-0.21136868,-0.13414262,-6.3336153,3.6389272,-1.4523675,132.15,89.739624,38.09032,17.218641,18.319044,14.962714,13.495427,11.157119,11.703496,12.5939865,12.889394,10.277567,8.439992
154.wav,-400.8253,177.80911,11.111538,8.642621,30.334166,3.2871497,-14.439144,2.6912866,6.6792684,-5.3896575,-0.27048752,6.530064,-2.3048785,89.09678,70.449936,17.443104,18.629082,19.441769,8.967284,11.772832,10.267284,9.441113,8.72444,8.104725,7.0771465,7.7410603
10.wav,-577.569,93.78116,13.912977,27.240541,10.5281,2.8927193,-3.7804556,5.6839013,-6.3105507,6.955476,-4.1816163,9.240267,-4.3576965,122.042694,76.51126,21.880808,15.933849,14.317897,14.207352,14.037134,8.789259,7.9727287,9.353802,8.039265,7.3904934,8.677361
159.wav,-356.1988,137.1009,-10.508162,5.1103396,27.061716,6.0550256,-5.876616,-12.277977,-9.647616,9.017089,1.0259746,-15.758202,-9.572549,114.412186,80.08593,32.237736,21.435242,23.745825,14.26297,13.152768,11.602034,14.567996,11.7919035,7.479373,13.936118,11.393677
103.wav,-588.11835,111.29281,18.976582,35.46897,15.602407,2.190522,-6.6312256,10.178159,4.0449634,1.4634858,-4.7937183,5.191828,1.0538797,123.356285,81.31112,25.234034,22.025564,18.665321,16.738333,16.415361,10.605164,6.858103,8.69495,10.176257,9.613744,9.110908
127.wav,-356.60208,154.87251,-13.932202,17.276745,43.614258,16.671326,-5.1885424,-21.773418,-2.0040257,13.510016,-12.8098345,-14.642855,1.7215697,112.33846,73.54497,26.917458,15.588866,26.130844,15.521627,12.065396,16.456213,12.789108,9.464683,10.449428,11.243919,8.244136
145.wav,-353.9414,162.14351,-16.377861,6.5099473,44.542492,5.8868957,-22.412136,-4.125577,11.53257,0.0075927917,-11.04972,-2.3892534,3.4086642,95.47671,67.5766,31.160658,21.850353,23.831558,13.683965,16.794746,11.372453,10.585394,8.472107,10.267139,9.764785,9.785069
14.wav,436.61542,106.13038,9.100804,20.421896,14.202853,7.6820683,-3.2214684,0.45994058,-2.3355017,2.2654338,-1.1754547,1.6227254,-1.1408967,129.98726,84.56887,27.532589,18.941174,17.542048,10.8865,12.919179,12.868743,12.298878,9.722923,8.175035,10.019154,8.044418
147.wav,-356.44586,163.72076,-17.412128,6.6178765,44.60037,5.6080103,-22.390009,-4.0715694,11.4372,0.064329214,-10.992668,-2.3904927,3.3869233,97.07605,68.44248,31.27551,22.162441,24.030865,13.694148,16.756138,11.4462595,10.650376,8.4684305,10.280858,9.8144245,9.786365
163.wav,-359.76892,154.76918,-9.12037,5.649851,34.197704,10.956982,-13.218534,-14.168,0.6564595,7.170123,-8.357354,-16.447266,1.5092615,117.942665,79.61159,34.332794,21.904163,22.853773,16.511093,12.907318,13.061877,11.617164,8.553681,10.869982,13.190161,9.558993
44.wav,446.5828,97.39109,20.697613,24.27757,13.720946,9.58141,0.5391861,-0.62033486,-7.5446467,5.0134516,-3.442644,2.7479608,-3.9168622,114.34165,77.879364,19.620695,21.734385,16.328775,15.882747,11.268204,11.134113,11.903293,8.338102,10.544263,8.2917385,7.4739294
29.wav,440.85074,115.22352,15.318938,31.279243,17.988184,5.2566986,-5.3906446,6.7115116,2.7732487,2.7965417,-2.8783352,-0.38201398,-5.3679333,125.01291,84.07798,24.145645,26.23553,20.916933,12.164546,15.65173,9.862436,8.668162,8.708061,7.595538,10.063046,9.007952
38.wav,461.11856,130.70491,26.857294,27.400127,12.494412,2.9700181,-5.214968,2.2909696,-1.6545634,1.8046544,1.311294,3.3336103,-4.5265613,110.20451,78.04648,25.121271,20.533129,15.464211,14.282452,13.060774,10.154765,10.410621,8.435532,6.5506773,7.200783,9.108343
62.wav,487.4902,113.81535,6.4093356,28.383545,7.3107176,-3.163761,-7.001411,5.575505,-9.063411,1.7938533,-9.282415,12.959697,0.6661619,127.290596,76.639725,24.486883,21.512806,14.902509,12.703925,12.855963,9.123861,10.605694,9.363278,10.705381,9.715069,7.3534737
5.wav,450.00577,90.05637,12.58038,26.03413,13.175819,2.3411996,-1.1085317,2.47916,-4.901481,6.6429,-1.4868321,3.3898897,-4.6644125,118.58637,78.4056,24.026358,18.145185,19.14325,11.763368,13.216925,9.470567,7.7651596,7.9968324,8.100173,8.05152,11.134299
101.wav,443.00793,108.549675,16.582819,26.457886,9.166636,4.0327,-4.1810994,5.127392,-3.758891,6.8980794,-4.5116405,5.2103596,-4.8119674,139.90201,88.55108,18.275639,23.901247,13.978468,12.204885,13.19987,10.894329,10.399396,9.751377,8.62298,7.612596,9.524817
74.wav,464.4388,103.20038,21.884174,23.696526,14.324815,2.0166574,-5.763514,0.13202299,-5.3301997,0.6129999,-7.577759,3.5641026,-0.6388896,129.96468,89.63679,19.735409,20.409973,15.831834,11.818528,14.52062,9.8950615,13.452135,10.88167,10.65535,7.0608897,7.3274217
32.wav,443.0854,112.93164,20.492306,30.746191,16.781927,1.7356318,-8.404479,4.0489593,0.09307511,0.4242206,-1.6710978,2.6428394,-1.599252,114.97841,78.47282,29.037048,17.910006,19.896963,16.570618,14.531011,12.017907,9.416208,8.717366,7.7419343,7.177831,8.126011
17.wav,474.4599,108.96308,16.372759,28.410446,11.128639,-2.5263171,-4.5373116,6.266087,-2.9795907,3.482007,-5.172269,7.6186366,1.2292717,118.10852,72.30764,26.735199,19.858942,17.156776,12.323166,14.942381,13.315825,8.843198,8.530334,10.291993,8.748217,9.091311
89.wav,434.6591,106.44513,17.896217,28.06117,24.23958,8.2723465,-9.338934,-1.6458328,1.9435451,2.6242776,-0.48681137,1.8605286,-3.0548673,114.05163,79.93891,19.567297,21.497261,22.53079,9.995249,18.288488,11.137251,7.356116,7.943519,7.571971,7.943779,8.431781
2.wav,431.2574,95.99856,17.451817,27.88881,7.6303997,-0.3905822,-1.3860203,6.554311,-4.724947,6.6623526,-2.6583924,4.070258,-1.0705565,125.25932,79.7586,26.351175,20.156443,15.487861,14.189558,10.956597,9.716381,8.049311,7.289756,7.4741526,7.411099,6.6461453
183.wav,-407.72345,153.58287,-23.138533,6.354607,46.186512,14.743043,-17.93917,-15.973848,7.467529,5.582383,-11.842323,-7.118638,-0.69758135,127.08177,84.71164,31.610167,20.932493,27.065022,13.431257,14.050546,15.357005,12.029195,9.458934,9.463473,9.638807,8.987591
190.wav,-447.6136,157.79987,11.631866,9.299407,21.450504,2.642968,-12.8240595,1.8708931,9.785855,-3.7262259,-0.89821154,4.576591,-3.9353466,110.160675,83.680305,21.41255,17.934532,16.625689,5.921827,10.881435,9.038815,9.646567,9.848172,7.836738,6.7131925,8.929744
192.wav,-448.8064,159.32822,11.270821,9.686467,21.484901,2.559142,-12.902556,1.8172048,9.887433,-3.6957836,-0.95140433,4.6031756,-4.033535,110.62801,83.30958,21.326767,18.04124,16.57589,5.988533,10.819885,9.087657,9.606535,9.910663,7.8685403,6.6471763,8.919056
47.wav,461.21146,113.55867,20.153353,28.793268,13.650365,1.5376375,-3.9433494,6.1913724,-4.3985205,1.515017,-5.1797924,6.7254953,-0.82667553,120.77715,82.90493,20.47792,21.87314,17.217075,11.441647,12.348677,9.974852,10.446483,8.592581,8.264547,7.502736,6.9930935
77.wav,451.74698,105.05974,21.58649,34.468807,11.082021,2.3406785,-6.378047,5.806796,-7.6960564,0.496069,-9.623412,4.8936906,-2.176518,115.91545,74.2272,22.892588,21.703455,18.818916,14.861609,13.427167,9.336609,11.524984,9.208453,10.422211,8.561812,8.737183
186.wav,-426.01556,168.91959,13.408203,2.6248963,25.293264,1.3721781,-13.516512,-0.09865475,5.245411,-3.367895,-2.3942811,2.0695026,-2.7197673,101.46751,81.829216,19.981348,14.309284,17.996832,7.3122573,11.788007,9.42657,9.301532,8.932935,9.420337,8.026026,7.8520713
80.wav,431.26727,104.67678,20.540838,28.700422,15.571198,4.527674,-5.3656254,6.5840077,2.897187,-1.7832193,-0.41189998,5.0013847,0.018633695,108.307976,77.9448,27.263153,21.200392,20.897446,15.036864,15.312103,10.8959875,7.77304,9.095719,7.999914,8.796866,8.658457
53.wav,426.00302,79.382065,26.736322,28.798622,11.890007,3.5135367,0.89831525,4.381777,-0.26127717,8.455014,-4.0959234,2.1244986,-6.250832,103.907776,71.36675,23.926172,19.787605,17.34674,16.372076,12.324825,8.396338,5.9669085,6.744347,6.430195,5.910419,9.872934
181.wav,-407.6399,152.47812,-22.797785,6.243256,46.086163,14.849632,-17.885582,-15.91835,7.44872,5.608328,-11.692456,-7.004505,-0.6383367,127.38401,85.12721,31.577503,20.86114,27.214731,13.476758,14.160187,15.322086,12.067863,9.513241,9.596725,9.689814,8.963986
71.wav,458.7787,110.89276,17.609068,19.666883,12.168626,-4.898517,-3.1588311,6.5760574,2.523267,-0.43839082,-0.7873868,3.7363262,0.6103143,119.300674,85.70314,21.275787,17.341051,20.705069,17.64493,13.570104,10.167528,7.785673,8.905424,7.2990375,8.306492,10.729109
214.wav,-442.06342,153.76921,11.84351,-1.2060139,21.308537,0.48108616,-14.218753,2.718582,8.162152,-4.8039966,-1.9605833,7.8059616,0.9097425,102.84905,84.6651,17.327208,13.431691,14.67979,6.9273067,10.142173,8.055293,9.6372385,7.8531723,8.539598,9.031294,6.561351
216.wav,-443.40643,153.81,11.367298,-1.3437917,21.193762,0.3171044,-14.224124,2.7387204,8.133417,-4.752685,-1.8678098,7.835063,0.9093988,104.03278,85.58456,17.29205,13.349254,14.814871,6.7940764,10.076389,8.082019,9.682303,7.8342767,8.561257,9.041405,6.518155
193.wav,-436.52188,172.92677,8.376725,-0.387059,15.166414,5.985835,-2.364658,2.0630085,6.0097585,-3.63153,-5.132349,1.8832126,-1.6506382,108.91765,87.29641,19.764803,17.824244,15.180326,11.174871,9.130547,8.422622,7.9931297,7.3967643,8.352323,7.061445,6.657773
184.wav,-422.81842,168.06088,14.54936,2.513446,25.135471,1.6246433,-13.5712,-0.07391865,5.3737826,-3.3261652,-2.3466825,2.0700276,-2.761671,98.91968,80.11096,20.078417,14.234881,17.958496,7.31811,11.92924,9.384833,9.263617,9.076684,9.503792,8.015265,7.8203254
172.wav,-383.76996,151.9644,18.839539,-2.8062034,7.0811424,0.76383954,-3.5559287,1.6020253,1.5748063,-7.8185115,-5.88811,-1.585482,-5.3603463,91.27655,75.78886,20.5047,18.19388,13.950376,12.744124,8.529627,7.720266,7.2178745,8.289889,7.936297,7.367888,8.248807
174.wav,-383.07666,151.32382,19.009998,-2.8203323,7.022202,0.7559061,-3.567302,1.5684061,1.5321945,-7.8104777,-5.9585814,-1.6570847,-5.311946,90.99168,75.76763,20.566868,18.08152,13.955798,12.734383,8.494352,7.7166767,7.199873,8.216147,7.8770747,7.3386397,8.207146
20.wav,443.27826,102.34656,9.240863,19.642822,14.136811,7.4200673,-2.8343654,4.4637036,-1.0230523,2.512082,-4.272251,3.9983742,0.19842494,131.4139,86.040375,25.306866,19.331442,18.49515,11.0367155,12.945131,9.654643,9.029944,6.972302,9.193026,7.218072,7.6229305
116.wav,457.12207,117.32987,13.367574,29.171076,19.434805,-0.20264477,-12.019524,1.3756196,2.4893918,-0.16427891,-4.9910636,-0.6292048,-3.5947363,122.26811,83.37652,29.579664,22.601137,23.038334,15.676093,16.987577,12.236684,7.0152245,8.714753,9.159332,7.8807917,7.8759766
137.wav,644.18585,154.88564,-1.4845963,10.91038,35.648342,18.297602,-9.087476,-18.137312,1.2348235,12.660196,-2.4608374,-12.220087,1.2909771,98.291695,71.07038,28.456459,20.363375,23.270266,16.160133,11.842486,17.138048,14.342269,8.411743,10.419458,10.090078,8.60794
149.wav,614.41504,131.20493,-3.989094,10.830702,35.16882,11.674355,-8.96995,-7.2381873,5.2571597,2.8047988,-12.356569,-8.137379,0.47725382,106.95579,76.531364,34.004246,17.308563,25.04345,12.0787115,11.83013,9.3632345,10.299401,8.028599,10.803674,12.072401,8.301475
156.wav,-403.56717,181.26817,9.652038,9.116551,30.657661,3.0390754,-14.313825,2.7663295,6.583332,-5.271742,-0.30373868,6.581963,-2.3268151,90.14559,70.41307,17.374426,18.859337,19.516195,9.130783,11.750088,10.389358,9.44587,8.726251,8.227385,7.1048117,7.7801504
171.wav,-366.5055,145.73904,-9.3442745,23.099733,22.514044,0.6019466,-8.805441,-11.990536,8.759613,12.140614,-11.99184,-18.511778,-5.214939,114.53968,70.22437,25.29676,26.228819,21.032854,19.741848,11.62655,16.904383,9.328366,10.065932,10.5512705,16.776718,10.213398
196.wav,-371.91495,152.78114,-14.244397,16.879656,42.151257,6.756983,-9.817661,-5.4680862,1.3510821,-0.89214146,-5.897675,-7.3275113,-8.846493,115.221375,76.19689,32.932724,17.45598,26.576817,15.585053,12.085895,10.201405,10.941515,8.642432,9.883173,9.213835,10.76105
211.wav,-432.25903,164.09584,19.507748,-5.0034204,21.086502,11.6098585,-7.1358814,-3.957536,1.3229537,-3.2369428,-2.6421328,-1.112006,-7.0077004,93.78672,79.70072,16.705744,15.816781,16.800488,10.976237,10.299174,9.093662,8.924296,7.7456346,6.8111625,7.668586,9.091764
166.wav,-375.24078,154.878,2.6786952,7.2834973,20.882586,5.8080897,-6.39626,-11.44534,4.2189217,11.821244,-6.8134403,-16.206934,-0.35572007,100.04156,74.09367,22.322512,18.639889,17.192324,17.456917,10.455483,13.919291,9.047632,9.667189,10.172806,18.058535,8.791538
168.wav,-374.52304,154.81027,2.8410325,7.312355,20.97978,5.824572,-6.4223833,-11.377553,4.2573442,11.866403,-6.704183,-16.150785,-0.3897536,99.29811,73.64381,22.278715,18.585451,17.17224,17.45089,10.46065,13.987587,9.111914,9.728139,10.284329,18.078299,8.7958355
50.wav,466.7242,120.346054,21.971317,26.69029,10.5470085,5.887444,-4.8648314,1.534131,-7.321387,7.2455597,-3.8595226,7.381637,-5.616756,122.42857,82.54064,21.522392,20.40672,18.87475,14.41228,11.574382,10.4148445,10.012729,7.684525,9.219996,8.381103,9.1586485
210.wav,-451.43918,170.63132,14.188121,0.988891,25.912949,0.64979213,-14.787759,3.1430838,8.56243,-3.9935536,-4.123652,3.0802221,0.17937726,101.07976,83.631226,14.33824,9.489394,17.547598,9.005627,11.321623,7.9528036,6.511832,8.945034,9.952154,6.859202,7.054348
160.wav,-403.39163,154.50954,3.1222534,22.579855,27.535473,1.1744361,-12.70981,-11.374549,-2.9533749,3.0628712,-4.47892,-11.589891,-4.7959676,93.85074,69.475174,21.700262,25.133863,19.567846,12.229998,10.431531,13.115726,14.44557,7.4741926,9.724458,8.855104,11.065824
122.wav,624.4649,154.17448,-19.280247,8.882481,39.1128,9.168171,-9.163727,-15.187661,-2.839757,10.084358,-5.308487,-12.608027,-3.4582467,116.320175,78.165184,23.954712,21.624582,22.975492,12.745048,10.030613,14.954216,13.034509,8.787861,7.9562416,10.991673,8.737699
169.wav,-366.66104,145.56781,-9.50299,23.070305,22.48194,0.55359644,-8.803442,-11.973514,8.756743,12.075128,-12.049826,-18.510715,-5.2542725,114.796295,70.5494,25.249718,26.266636,21.127663,19.769854,11.64452,16.86088,9.332722,10.093634,10.456744,16.691286,10.183835
189.wav,-391.09958,167.70305,-19.20475,4.763317,42.270355,17.227364,-13.847745,-19.990086,2.8019521,10.747947,-5.5935507,-9.749524,-6.0132027,109.60825,73.9141,24.023844,20.960144,22.996876,14.234839,12.751678,18.766094,13.561273,9.118812,7.54019,9.840064,10.665426
207.wav,-410.7873,166.98038,21.62958,5.7273235,25.30132,4.0623765,-12.097207,-0.41836944,5.192053,-4.5181866,-3.7927122,1.330669,-4.467907,87.58699,73.95732,14.701848,11.554845,17.406363,7.8140287,11.150189,7.9840446,7.057314,9.154438,9.777759,8.528554,7.893333
177.wav,-386.3879,166.8247,-5.494996,2.1120384,28.983727,-1.1048328,-13.205164,3.774259,7.20153,-9.047792,-12.340242,0.3404543,-2.002271,91.37059,70.37647,19.156973,13.299961,17.504557,9.924726,8.594599,10.423815,9.060142,7.944524,10.335286,10.638596,8.632723
187.wav,-391.0013,168.33846,-19.170712,4.873358,42.39523,17.24446,-13.896337,-20.078249,2.7970881,10.7920475,-5.5979366,-9.750465,-6.0291047,109.141396,73.37502,24.179813,20.943962,22.888369,14.208819,12.688826,18.721394,13.560705,9.073557,7.5446568,9.843721,10.698988
198.wav,-371.9379,152.5766,-14.556064,16.552319,41.963493,6.652224,-9.885736,-5.5016437,1.2711496,-1.0403764,-5.994443,-7.3516397,-8.894966,115.18724,76.36388,33.096786,18.081633,26.756023,15.566382,12.043423,10.165426,10.859275,8.497282,9.808208,9.184215,10.747429
155.wav,620.9045,177.8091,11.111546,8.642614,30.33417,3.2871518,-14.439151,2.691285,6.6792707,-5.389662,-0.2704898,6.530069,-2.3048766,89.09676,70.449936,17.443106,18.629087,19.44177,8.967279,11.772832,10.267281,9.441117,8.724447,8.10472,7.07715,7.741064
220.wav,-403.81775,143.78534,-4.421183,16.023512,28.465328,5.1430464,-9.307565,-17.662853,1.6636356,10.200131,-9.499652,-13.570864,-4.1750107,103.96267,72.6267,20.133429,22.714792,19.457314,12.183708,11.599767,16.134981,12.160615,9.47691,9.644526,12.127193,10.249093
201.wav,-385.7566,155.1284,-24.861982,14.774768,47.448902,11.659021,-13.86587,-10.44537,-0.93275833,-4.5654893,-3.5527859,-1.7318054,-8.891467,109.12114,71.96599,23.161747,23.842648,22.64833,12.093255,12.005403,13.754992,12.454393,8.531458,8.229341,8.733601,11.780186
83.wav,437.70908,105.28196,17.337032,27.095127,24.279354,9.306775,-9.944524,0.91766053,4.788351,2.6978595,-1.793953,0.8796395,0.64167607,121.28231,83.10414,29.297663,20.371765,21.136213,11.534989,19.1553,10.953569,6.6348014,7.713646,7.944394,9.5065155,7.650008
68.wav,447.51572,109.47857,20.110266,25.491299,16.82669,3.4353833,-3.6378913,2.9849524,1.2729235,1.1401489,4.244364,2.145505,-4.7986345,114.600945,81.43784,21.231684,19.090115,14.969937,9.979226,13.557981,8.847526,8.0040045,8.264358,6.2986345,7.412371,9.442791
208.wav,-449.89902,170.94827,14.77795,1.0721284,25.962566,0.7749303,-14.792471,3.1761355,8.619825,-3.9465501,-4.092458,3.0043774,0.07203539,99.46635,82.319084,14.576055,9.6736765,17.460762,9.023672,11.40468,7.932197,6.457309,9.01499,10.009396,6.908959,7.164991
109.wav,-543.04553,99.201965,18.436895,21.783768,12.727536,1.8955015,0.031051943,2.597232,-4.380226,-0.24639061,-1.409897,2.7222674,-1.8480773,110.861855,78.358,23.899849,20.422907,17.225492,14.866493,13.466507,12.048831,12.605847,7.9744244,9.727224,7.156061,8.349213
106.wav,-563.34735,111.71297,21.409353,21.943947,22.521376,2.7588122,-8.138027,1.2781215,4.50644,0.9223759,-0.2766126,1.7131962,-2.0044577,117.059906,89.165184,19.31793,19.120535,19.434853,12.183297,17.974707,10.943272,7.4408207,7.52341,7.793535,6.8162785,9.058529
223.wav,-349.07712,143.78546,-1.3405505,-8.672215,24.104427,15.054555,-14.8849325,-18.819433,1.256307,10.387233,-5.8588157,-16.52529,-2.5690157,110.55801,80.75112,29.63577,17.653584,24.53925,16.967672,13.286371,13.43966,8.982246,8.342273,11.412591,12.138303,9.212548
108.wav,-563.17505,111.7113,21.477743,21.891537,22.544786,2.7399232,-8.124531,1.2848744,4.5548215,0.9434588,-0.25832966,1.7121303,-2.003123,116.84704,88.96215,19.250772,19.025286,19.348356,12.251853,18.054132,10.918601,7.383744,7.626527,7.921988,6.821872,9.042911
204.wav,-400.71268,157.24701,-3.0592222,21.03037,40.27132,8.761828,-16.79565,-7.952165,0.5829313,-3.0022736,-5.116059,-7.969508,-6.957046,99.160576,67.75182,21.392775,20.02669,23.404226,13.42122,12.189526,12.125143,13.240883,8.666975,9.51168,10.215736,9.938728
222.wav,-403.91998,143.58078,-4.391245,16.030842,28.450083,5.140092,-9.352656,-17.69608,1.6475058,10.147167,-9.519185,-13.512474,-4.1002145,104.11269,72.81488,20.09627,22.673788,19.466936,12.152237,11.624592,16.121462,12.133819,9.452386,9.602658,12.124015,10.287789
105.wav,-588.07367,111.509674,19.139435,35.605865,15.691323,2.312114,-6.564775,10.23661,4.071155,1.4680674,-4.8280888,5.1939926,1.0554141,123.208305,81.07266,25.198769,21.833567,18.584755,16.813585,16.512186,10.607838,6.841677,8.701843,10.207397,9.6228075,9.145952
162.wav,-402.83282,153.9181,3.3902767,22.470812,27.521961,1.1981369,-12.799219,-11.492235,-2.9830987,3.0866528,-4.3993506,-11.501731,-4.730882,93.50304,69.35348,21.717543,25.093185,19.479465,12.182618,10.456536,13.038282,14.424368,7.5735497,9.758854,9.013816,11.10418
237.wav,-444.3293,157.19647,-3.001929,14.025708,35.44535,4.3229213,-14.88006,-4.817457,-0.29999682,-4.1960263,-3.3626685,-5.349469,-2.8142111,112.36224,81.7408,26.52344,21.5071,22.718992,12.337801,13.5795765,8.708158,11.094183,8.748381,12.258261,9.761839,9.084606
231.wav,-349.09042,139.73299,-22.352245,9.838643,33.038048,14.629912,-4.4092474,-14.901461,-6.505354,9.00641,-0.90311944,-14.874042,-5.7653856,120.43531,75.82524,30.144773,22.694326,27.147427,13.616952,10.272273,13.533489,13.66889,8.964277,10.186317,14.492099,11.438569
235.wav,-445.4001,156.6387,-3.5672731,14.035462,35.47246,4.3762307,-14.83468,-4.833955,-0.32210353,-4.1914134,-3.4139404,-5.4064536,-2.8624272,113.69676,82.87009,26.15599,21.519161,22.69517,12.240555,13.588981,8.7085705,11.134839,8.798185,12.237427,9.744733,9.084914
140.wav,610.2548,146.09032,-13.98713,13.84587,51.68128,9.821144,-21.018938,-8.776731,6.2630305,-3.2301934,-13.022684,-2.1166227,3.7966983,101.584366,69.937386,26.89646,19.546345,26.938469,9.704903,12.904048,11.973816,10.46791,8.971935,11.491761,8.2155,8.340013
244.wav,-572.38245,127.07321,22.756132,31.614006,3.813832,-7.712994,-7.9807844,9.2408905,2.5620048,1.6366055,-4.554406,2.3086283,2.116599,124.179474,84.12022,25.343653,24.001888,18.487803,20.080534,13.751704,10.324166,10.357107,7.2892356,9.109203,8.041234,7.423696
217.wav,-342.75366,153.58322,-12.457857,11.111906,29.604256,17.962332,-6.325866,-13.422264,-2.9506989,2.5532544,-0.6881985,-7.842459,-11.366354,114.967995,69.13322,24.662302,20.662872,20.585625,16.236355,12.262365,12.351404,10.070259,8.751476,9.205515,8.545938,12.871231
246.wav,-571.90515,127.06915,22.995943,31.553293,3.8950315,-7.884255,-8.02535,9.010431,2.4469974,1.4587784,-4.5658736,2.2309823,2.0958755,123.642,83.93902,25.377626,23.965435,18.498196,20.113516,13.652574,10.326007,10.313122,7.2184353,8.984691,8.102245,7.4425035
241.wav,-582.20197,114.81401,33.452076,25.225628,13.661697,3.89456,-6.40737,2.2438822,2.8339882,-2.3797472,-4.9181046,0.61294013,-1.8038769,110.39683,86.49042,27.11681,20.207098,19.812023,12.28361,17.79217,12.19385,7.2037992,9.861722,9.739766,8.7009735,9.3090315
226.wav,-377.16003,152.79462,-9.627537,15.581053,35.711807,5.5517855,-11.195993,-13.100367,1.1418067,6.2544703,-11.347642,-8.738315,0.1185649,98.321434,69.95713,25.513186,22.571814,22.68794,12.770894,13.169407,14.134976,13.835889,9.744361,10.235876,11.399975,9.572047
255.wav,-580.6685,124.13315,29.216887,25.20326,13.549186,8.773146,-5.7814918,0.80259013,0.017452832,-3.7834156,-5.3628526,1.9506023,-0.895305,117.882126,88.11951,26.396015,20.760841,18.298073,10.707553,13.230792,9.196907,7.9796796,9.301461,7.996163,9.268746,9.534358
252.wav,-578.6952,117.29867,25.375038,23.229738,14.808976,6.014302,-7.3429213,0.42637777,3.0607212,-1.337838,-2.8857982,3.2331324,0.31524196,117.16048,87.400116,23.020233,18.06413,14.572645,9.780143,13.361054,8.97127,6.551788,9.5595665,9.163823,5.6870956,6.662998
228.wav,-377.07666,152.76868,-9.647239,15.578978,35.695663,5.525726,-11.157996,-13.06473,1.1484728,6.3023005,-11.307605,-8.748692,0.12267301,98.22682,69.89488,25.495985,22.579006,22.69509,12.768754,13.181453,14.141519,13.852626,9.75562,10.316701,11.428993,9.562933
243.wav,-581.6491,114.513565,33.532898,25.014187,13.724131,3.7410033,-6.380496,2.142802,2.8467257,-2.4219499,-4.8655763,0.6465819,-1.7382715,110.02084,86.59699,27.278236,20.241886,19.83175,12.212892,17.697906,12.15515,7.192054,9.817416,9.710847,8.660817,9.283302
250.wav,-579.34686,117.42592,25.090357,23.301773,14.550857,6.019439,-7.5614867,0.41792557,2.9320412,-1.3359227,-2.9617789,3.2482479,0.26318276,117.83282,87.59941,23.024738,18.24253,14.615976,9.784179,13.253104,8.925226,6.5374584,9.490008,9.107255,5.6823883,6.6788044
288.wav,-593.6222,103.285324,13.66618,30.643103,9.212414,-5.051601,-6.5773067,5.7379804,-0.12791187,-0.5891511,-4.0682516,3.0748267,1.6208467,132.67143,86.79689,32.40009,21.280516,18.962254,19.324663,11.390874,9.20322,6.8591027,14.95826,8.018342,7.7955723,5.8390093
256.wav,-581.1322,105.98009,23.49559,26.963682,20.116264,7.580564,-7.949316,-1.8638178,2.5002081,-1.2396097,-2.755308,1.0508505,-1.7514709,110.76843,81.99866,26.484426,23.43054,20.291704,9.928631,16.646227,12.113627,8.611898,9.244057,9.828326,7.928992,7.764597
232.wav,-398.6639,188.86014,15.9307785,-7.4399457,18.477903,7.2567787,-6.9347777,-1.4656894,2.6040306,-4.2950716,-3.5521045,2.696306,-1.4662641,88.294975,72.3274,14.608704,11.05409,13.240553,10.211708,7.384913,10.813874,9.302869,7.8824916,7.6776857,8.507826,7.819978
253.wav,-580.60345,123.89934,29.112158,25.1366,13.565068,8.786581,-5.779601,0.7968784,0.0051388666,-3.8014235,-5.376302,1.9531565,-0.9145342,117.7574,88.23432,26.456318,20.819822,18.373924,10.786692,13.17501,9.240352,8.007149,9.283828,7.9998116,9.277159,9.550456
286.wav,-594.07745,102.97313,13.433443,30.571468,9.19139,-4.9988303,-6.6285286,5.6910224,-0.24184002,-0.6469994,-4.1118927,3.1781363,1.6643283,133.05127,87.037056,32.320766,21.388252,18.937151,19.235228,11.239376,9.227729,6.8423185,14.999746,7.970063,7.781701,5.9433594
273.wav,-562.1896,122.23049,22.123266,30.842802,9.695142,-1.293093,-7.9621935,1.4392006,-0.34799832,-7.3725944,-2.3226354,9.275441,0.3304751,114.21345,83.50994,32.162754,22.097038,19.362616,13.737191,12.485613,11.405515,9.332045,11.6175995,9.370063,9.08481,6.3248343
167.wav,646.48895,154.878,2.6787035,7.2834926,20.882586,5.808085,-6.396262,-11.445332,4.218927,11.821245,-6.81344,-16.206934,-0.35571972,100.04154,74.093666,22.322512,18.639885,17.192326,17.456915,10.455488,13.919302,9.047625,9.667187,10.172805,18.058533,8.791542
200.wav,633.50226,155.80618,-25.422924,15.113865,47.37023,11.497113,-13.7041855,-10.355535,-0.96156335,-4.71044,-3.6204038,-1.6482472,-8.821871,111.36796,73.18227,23.297564,23.809622,22.897017,12.04616,12.031143,13.775726,12.3693,8.421478,8.154197,8.696977,11.868873
170.wav,655.06866,145.56783,-9.502998,23.070297,22.48193,0.55359125,-8.803453,-11.97352,8.756736,12.075116,-12.049837,-18.510723,-5.254274,114.79631,70.5494,25.249731,26.266638,21.127665,19.76985,11.64452,16.860876,9.332725,10.093629,10.456739,16.691294,10.183844
261.wav,-557.9894,142.87903,32.642742,22.804829,11.989096,1.801675,-11.2660885,0.450852,2.506422,-5.783814,-6.5246124,2.3895175,-0.72060645,112.516365,86.81155,26.136839,19.086285,17.225903,13.176628,14.693589,12.114212,9.361654,11.652759,10.70934,8.605047,7.2742567
234.wav,-398.5869,190.0757,15.641829,-7.2735906,18.616236,7.197276,-6.87494,-1.4310904,2.617802,-4.299016,-3.552725,2.733296,-1.4565045,87.49073,71.43902,14.513426,11.076908,13.139514,10.165455,7.401291,10.8458605,9.285772,7.8871684,7.6407743,8.445348,7.849355
191.wav,574.1161,157.7999,11.631874,9.299389,21.450514,2.6429756,-12.824072,1.8708911,9.785876,-3.726221,-0.89823496,4.576608,-3.9353335,110.16067,83.68031,21.412558,17.934551,16.6257,5.9218264,10.88143,9.038811,9.646569,9.848165,7.836742,6.713189,8.929754
262.wav,-570.3661,124.58115,23.817667,18.90997,16.130383,7.6337376,-6.4569445,-0.99376,-1.6435912,-2.3078003,-0.1868801,5.016531,-2.2413056,120.33803,89.51676,21.94923,18.815918,19.026714,10.4794445,14.924684,9.958196,7.890578,8.378797,6.9424376,7.7115474,6.915384
247.wav,-579.196,119.59366,25.68389,25.7205,6.9288406,-1.1775489,-8.331022,4.534359,6.061552,-1.8065654,-3.2837062,6.1986375,0.13420388,118.77805,86.98815,29.945446,18.921003,17.666374,15.717337,13.993923,10.168073,7.820121,12.118261,8.895301,8.564193,6.281547
240.wav,-366.8372,146.08022,-0.054890018,14.802326,27.848627,7.458531,-10.300001,-13.985593,-0.23839907,6.7345347,-4.9786067,-15.588027,-3.5465653,95.19505,65.965904,26.406944,24.006784,19.939661,14.765793,10.518154,14.308015,13.301327,8.339481,8.843106,13.289369,9.525067
283.wav,-568.61334,117.25647,8.12253,22.481833,22.133614,1.8107301,-12.09595,-1.4776576,-2.126967,-0.6756657,-1.980549,1.6276659,-0.056349598,139.79474,92.18008,21.820004,17.669945,18.50479,13.168045,19.008411,9.80526,8.8131485,8.7082815,8.311246,7.2991624,8.829583
310.wav,-577.1051,115.78369,5.922008,20.115652,14.544351,-3.9534671,-14.29063,5.261207,2.1405387,-0.7351557,-5.7537313,1.2573681,-0.13820715,147.23894,94.89537,25.48352,23.13747,21.088781,18.415926,18.418663,9.208313,9.786315,7.0964594,9.081649,6.084759,7.286649
258.wav,-581.3184,106.20388,23.64302,27.191336,20.256474,7.738095,-7.8767986,-1.7738236,2.5384936,-1.176926,-2.7334495,1.0591773,-1.7659107,110.867455,81.83904,26.447649,23.366571,20.247805,9.971371,16.71126,12.124578,8.60608,9.17866,9.884273,7.9570084,7.809265
274.wav,-597.2601,108.73811,32.686306,28.403767,6.296866,1.809113,-4.549255,4.3293834,1.0939901,-2.418583,-3.1779451,2.8241193,-0.37315288,109.29311,83.74215,32.377296,20.737202,16.407671,15.064706,11.4586735,8.268738,8.481141,10.620498,8.737676,5.3848915,6.9316926
295.wav,-586.8139,107.409164,20.578268,23.054195,13.09268,7.4380293,-5.6774597,-0.1396518,-0.5467125,-1.3124487,-1.9201035,3.9929745,1.2949207,118.482376,85.786064,23.616737,20.945997,14.521259,10.071267,13.4334545,9.807449,8.159548,9.667372,9.818333,6.5237856,7.297734
197.wav,649.81476,152.78113,-14.244377,16.879662,42.151264,6.756992,-9.81766,-5.46809,1.3510865,-0.89213246,-5.8976707,-7.3275,-8.846484,115.22135,76.19688,32.932724,17.45598,26.576815,15.585053,12.085891,10.2014065,10.941525,8.642428,9.883172,9.213837,10.761055
271.wav,-562.44275,122.12577,21.90952,30.879414,9.632031,-1.1994175,-7.969969,1.450665,-0.4398993,-7.435565,-2.3904836,9.24002,0.27503717,114.45078,83.67836,32.15219,22.18481,19.410215,13.775014,12.398405,11.387419,9.319026,11.545304,9.295097,9.138319,6.3798275
264.wav,-570.1012,124.32961,23.835562,18.847805,16.280048,7.604527,-6.4317956,-1.0205125,-1.5685569,-2.288461,-0.12345668,5.033268,-2.2102544,120.15546,89.65178,22.07131,18.838358,18.97718,10.519181,14.871405,9.899823,7.803067,8.3646755,6.9777474,7.718289,6.854066
282.wav,-579.2986,126.61128,34.29953,25.531136,2.3920496,-3.6126597,-6.1799994,6.2041254,2.5515668,-1.847612,-3.2413452,3.7616725,-0.18250148,115.652824,87.802,32.46652,18.127497,18.333698,18.685898,13.667996,9.816089,9.545122,12.205598,9.80932,7.490585,7.810151
276.wav,-597.227,108.69237,32.676285,28.350338,6.2593083,1.7762111,-4.56147,4.3263483,1.1038228,-2.414845,-3.1793368,2.8163795,-0.3656877,109.3567,83.86223,32.4156,20.69972,16.345417,15.073221,11.468421,8.245433,8.503092,10.655911,8.703657,5.375349,6.9149694
161.wav,618.338,154.50955,3.1222472,22.579857,27.535479,1.174432,-12.70981,-11.374546,-2.9533792,3.0628753,-4.4789205,-11.589889,-4.7959595,93.850746,69.47518,21.700262,25.13387,19.56785,12.229998,10.43153,13.1157255,14.445567,7.474198,9.724457,8.855105,11.065827
270.wav,-605.48364,92.6569,25.158844,25.183989,15.2450485,6.049699,-4.8795733,3.4432511,6.793965,3.45554,-2.0930738,2.4982276,1.4740862,111.34735,82.61589,27.463476,17.965103,16.671293,11.05501,17.18984,9.524234,7.744908,7.6704855,9.67729,7.3397994,5.849767
292.wav,-550.0593,126.947815,25.519596,25.935524,22.142855,3.517152,-10.4650545,-2.701048,3.9493694,-2.452123,-6.2101116,-0.028251091,-1.7845224,110.72157,85.13298,28.847294,26.134396,22.634808,11.181452,15.4128,11.922983,9.363072,10.216861,12.633192,8.087012,7.68469
203.wav,620.31287,156.74995,-3.1605535,21.157719,40.303886,8.779286,-16.737558,-7.8690515,0.6288148,-3.005835,-5.0761166,-7.9338527,-6.9531827,100.21235,68.571075,21.302917,19.883986,23.433853,13.480921,12.260098,12.082111,13.190812,8.61715,9.482988,10.25157,9.926663
291.wav,-582.2462,123.51663,29.51732,23.014015,3.482933,1.5273361,-6.0887637,5.0150433,1.9992558,-0.65764314,-4.135708,3.1509614,1.4071782,120.07955,86.30663,32.33502,20.454887,18.182774,16.851265,12.301582,14.364637,9.87631,9.599084,7.624536,7.3309608,6.3812313
280.wav,-579.007,126.70499,34.43194,25.504103,2.4156442,-3.651087,-6.131082,6.266334,2.660555,-1.812152,-3.2067142,3.776394,-0.15813108,115.43482,87.66733,32.42337,17.96835,18.279839,18.627497,13.67302,9.77754,9.569977,12.184475,9.713948,7.445857,7.7847795
301.wav,-574.78143,114.030045,27.039818,23.620277,21.38071,6.3347864,-9.632038,-3.4372113,-0.75635755,-4.008272,-1.5992259,4.058502,-0.5728043,105.33882,81.11119,22.822704,22.61161,18.831886,9.414019,16.45403,10.144657,7.875533,11.321217,10.831102,8.77587,7.4441257
179.wav,578.5229,170.55516,0.9537988,8.395861,30.875479,4.3468394,-16.015924,2.5686564,13.343684,-3.4035618,-3.1022336,5.462987,-2.2510524,104.26388,77.36276,16.345638,16.001001,17.621418,9.469318,10.286052,11.5356865,9.313898,7.8423204,10.054185,9.342225,7.1091313
209.wav,571.8307,170.94832,14.777947,1.0721391,25.962557,0.7749321,-14.792459,3.1761317,8.619829,-3.9465494,-4.09247,3.0043883,0.07204546,99.46639,82.319084,14.576063,9.673714,17.460754,9.023683,11.404678,7.932196,6.4573054,9.014986,10.009395,6.9089565,7.1650014
215.wav,579.6663,153.76921,11.843504,-1.2060139,21.308525,0.481082,-14.218751,2.7185743,8.16215,-4.803987,-1.960593,7.8059487,0.9097526,102.84905,84.6651,17.3272,13.431691,14.679793,6.927307,10.14217,8.055296,9.637234,7.853169,8.5395975,9.03129,6.5613465
307.wav,-592.87445,110.01204,37.598015,20.998192,5.527731,1.4493114,-2.9573362,2.7507691,0.46507314,0.69674855,0.85213834,0.46481398,-2.2057776,105.33455,85.78513,32.369576,21.646244,19.470716,17.417883,12.700871,9.746874,7.7493005,8.028188,7.258748,7.95056,7.521137
316.wav,-580.8282,103.62597,17.096115,18.296907,12.657545,3.8829672,-5.6987233,0.6259532,6.6467066,1.5723517,-3.319115,2.4551282,0.9525798,118.424164,85.79947,26.558836,19.271244,16.064075,10.752249,14.72628,12.669381,7.662817,8.442834,10.935945,7.8634186,7.8455133
279.wav,-562.149,124.6513,6.2411895,24.69627,15.112488,0.5391442,-7.604446,0.6442842,-2.78951,0.88966125,-3.1947792,3.4160275,0.990108,122.288956,81.01927,32.9426,21.6978,17.484991,14.748496,13.748848,7.2757554,7.1211195,9.30642,8.704343,8.034596,7.9305105
218.wav,678.9761,153.58322,-12.457865,11.111904,29.604258,17.962326,-6.3258758,-13.422268,-2.950702,2.553249,-0.6881997,-7.842463,-11.36636,114.967995,69.133224,24.662298,20.662868,20.585629,16.236359,12.2623625,12.3513975,10.07026,8.751475,9.205513,8.545933,12.871224
303.wav,-575.01953,114.04033,26.907866,23.591454,21.29878,6.339934,-9.653835,-3.4016294,-0.75522923,-4.04795,-1.6986517,4.008418,-0.6057505,105.55521,81.204666,22.874516,22.591318,18.84318,9.423261,16.437021,10.169749,7.8474073,11.227975,10.76736,8.70188,7.4604473
164.wav,661.96075,154.7692,-9.120384,5.649853,34.197704,10.956974,-13.218535,-14.167999,0.6564554,7.170121,-8.35736,-16.447266,1.5092558,117.94268,79.61159,34.332794,21.904165,22.853771,16.511087,12.907313,13.061872,11.617171,8.55368,10.869976,13.190156,9.558994
188.wav,630.7284,168.33846,-19.170721,4.8733654,42.395245,17.244455,-13.896332,-20.07824,2.7970827,10.792046,-5.597928,-9.750463,-6.0291033,109.14139,73.37502,24.179808,20.943954,22.88836,14.208814,12.688828,18.721401,13.560694,9.073545,7.544656,9.843724,10.698989
221.wav,617.9119,143.78531,-4.4211903,16.02351,28.46532,5.143037,-9.30757,-17.662859,1.6636376,10.200133,-9.499651,-13.570867,-4.175015,103.96267,72.6267,20.133425,22.714794,19.457315,12.183702,11.59977,16.13498,12.160609,9.476913,9.64452,12.127188,10.249088
306.wav,-583.44763,109.8735,19.34192,26.58828,11.071864,3.6093812,-6.6984415,4.071032,3.6960106,-1.7903612,-2.8218434,6.026084,2.1561875,122.89911,85.71795,31.282003,21.774414,16.048807,11.875431,14.897528,9.1424465,7.2782016,8.850806,9.228238,8.800223,8.080507
318.wav,-579.88354,103.46479,17.299732,18.068224,12.848,3.7977347,-5.555216,0.5507081,6.646815,1.5381584,-3.2925909,2.3948166,0.9493575,117.65856,85.52482,26.4654,19.186058,16.098297,10.688353,14.7065735,12.643571,7.565966,8.434081,10.955562,7.8616805,7.826182
297.wav,-586.52966,107.49495,20.750948,23.048204,13.208799,7.4613447,-5.561165,-0.14293568,-0.49087423,-1.2862821,-1.8175042,4.048483,1.3420565,118.21086,85.64722,23.64733,20.90239,14.514545,10.097052,13.513786,9.809212,8.142051,9.651835,9.869927,6.553486,7.3839116
331.wav,-569.08356,115.97517,20.349798,22.4817,11.680275,3.063039,-4.511929,4.898681,0.37665457,-2.2371209,-3.2577367,5.3174543,0.59543693,119.1186,86.16955,26.252386,20.73251,17.17437,11.37531,13.500935,8.136928,8.672956,7.668979,8.709682,8.6374445,7.414367
227.wav,644.5697,152.7946,-9.627535,15.58105,35.711803,5.551784,-11.195994,-13.100367,1.1417986,6.2544646,-11.347639,-8.738316,0.11856306,98.321434,69.95712,25.513186,22.571808,22.68794,12.770896,13.169406,14.134978,13.835884,9.74436,10.235884,11.399974,9.572053
339.wav,-585.4825,125.05254,28.624939,22.2399,6.359233,-3.8956742,-9.252317,6.8044395,5.230726,1.9932564,-3.501122,0.21680637,0.089029625,119.16788,88.510155,33.953514,17.857454,17.924496,16.70371,14.279177,11.266198,10.091551,9.973452,7.5907216,6.3739543,7.3469276
289.wav,-581.96564,123.81988,29.623919,23.052675,3.5132456,1.5962461,-6.05133,4.9995317,1.9604921,-0.68112326,-4.1174817,3.2000396,1.4753568,119.741745,85.945854,32.22794,20.354383,18.190388,16.826113,12.351227,14.4434395,9.889522,9.60523,7.688838,7.3605924,6.433435
321.wav,-564.73755,123.87606,22.323242,18.847397,11.583778,6.63736,-2.8304722,-0.5500304,-1.5227664,-0.28960946,-0.040195163,3.3868976,-0.5809014,115.05316,85.1617,30.507996,18.42065,19.639849,11.349887,12.706437,14.920375,11.908378,8.965962,6.5923324,7.9397554,7.118883
337.wav,-585.1781,125.111084,28.824991,22.36372,6.50573,-3.7148166,-9.029404,6.999245,5.3287773,1.9844058,-3.4798625,0.24689423,0.1254776,118.727,88.17858,33.88522,17.771294,17.851261,16.760485,14.329072,11.234709,10.066555,9.966942,7.6169195,6.320741,7.3210177
313.wav,-588.39294,115.73365,35.161285,24.074757,11.690799,9.105684,-2.5022943,-0.53003484,0.20378672,1.6334181,-2.8307092,-2.7371836,-3.7212627,112.02258,89.49398,24.696293,19.715324,18.999916,13.940442,14.187242,12.510618,10.383228,8.036157,9.048471,8.010189,8.137955
333.wav,-568.9017,115.93641,20.43425,22.433224,11.708246,2.9801834,-4.5460086,4.8149796,0.35850784,-2.3133955,-3.3115656,5.2335677,0.5663598,118.88205,86.06977,26.238068,20.707027,17.156527,11.36008,13.510526,8.196375,8.696202,7.6063657,8.692388,8.628968,7.3932796
330.wav,-544.10803,116.042816,9.463781,26.588755,24.332367,-5.4636683,-14.025209,3.2690344,3.9379652,-0.83212847,-4.469834,0.39154047,1.1466385,105.94438,76.394005,30.050732,26.715963,24.881449,16.722488,18.555407,10.353906,10.475475,8.068694,10.70022,7.9121013,6.928873
224.wav,672.65265,143.78543,-1.3405422,-8.672221,24.10442,15.05455,-14.88494,-18.819435,1.256306,10.387223,-5.8588243,-16.525293,-2.569028,110.55798,80.75112,29.635761,17.653584,24.539255,16.967672,13.286374,13.439659,8.9822445,8.342273,11.412586,12.138292,9.212545
334.wav,-553.2109,114.70714,15.585915,16.819351,21.492245,3.9665346,-8.8391,-3.738963,-0.56497085,-2.9138432,-2.2907345,2.243622,-0.9709361,124.75563,91.46396,22.359888,17.693209,18.495646,8.764518,17.127007,11.629366,8.348463,9.823865,11.448293,8.189828,6.6133084
324.wav,-556.9466,117.20624,16.787987,32.24416,16.205873,-3.7930696,-5.426304,4.1828623,-2.857729,-4.2093806,-2.392621,1.4837912,-3.061867,117.45725,81.788704,25.551817,22.016417,17.291126,15.9657,14.386226,11.72072,11.3068495,10.60985,9.82044,8.873067,8.474766
230.wav,671.73615,140.26108,-22.641209,9.927176,32.952812,14.529511,-4.428118,-14.9398,-6.5767736,9.0036745,-0.9262636,-14.825174,-5.7028713,121.18734,76.16354,30.211887,22.754435,27.213375,13.600315,10.217412,13.526599,13.577342,8.901512,10.203625,14.618022,11.51093
336.wav,-553.5228,114.80698,15.569782,16.889267,21.454786,3.9442208,-8.909579,-3.751645,-0.5900603,-2.9445736,-2.3729403,2.1755602,-1.006632,125.02589,91.567795,22.409073,17.69527,18.51005,8.765642,17.087631,11.610033,8.304021,9.761547,11.400265,8.19482,6.5915303
319.wav,-564.3928,123.59971,22.327326,18.687616,11.605957,6.5200596,-2.8376966,-0.62422407,-1.4925016,-0.3052086,0.005303701,3.430561,-0.5406761,114.84961,85.360054,30.565939,18.413734,19.668358,11.311246,12.601537,14.866285,11.844967,8.924424,6.6355476,7.994129,7.141957
327.wav,-583.42487,115.41672,24.041967,24.113815,11.180568,7.1403327,-5.88358,1.3101076,-1.2744257,-1.497743,-0.79504937,3.7707837,-0.56926996,114.82725,84.40132,26.277096,20.007849,16.957987,10.56337,13.888522,10.475617,9.429019,10.787315,7.733026,7.845213,6.618709
349.wav,-567.04816,114.69491,14.5316515,23.702019,17.820936,-0.8105562,-10.490013,2.3340743,1.180578,1.1870141,-4.518214,-0.75680524,-0.0067991936,124.0904,87.18932,29.167662,20.571087,19.63592,12.570282,16.302559,10.855423,10.181407,9.448757,9.187176,7.3509936,8.890145
328.wav,-544.1114,116.27765,9.559854,26.762335,24.411976,-5.374199,-13.990655,3.3278785,3.99633,-0.7405249,-4.451415,0.40606195,1.1834809,105.954124,76.2875,30.061258,26.685574,24.852793,16.76028,18.5102,10.396154,10.535308,8.060357,10.742668,7.955404,6.933112
342.wav,-595.09265,115.912994,26.226732,32.66472,13.009459,7.6350617,-8.9159355,4.7346544,3.2861476,-0.1835942,-3.756881,3.4646196,-1.1776063,118.7774,80.58805,25.624502,22.668285,20.782902,12.209865,16.927877,13.364912,8.24727,8.742289,8.972419,7.448915,7.769328
346.wav,-591.03284,107.017456,18.50379,25.468845,14.911433,-1.3044978,-11.574787,2.3048801,1.6524688,0.98238176,-2.1695652,-0.38680944,-1.9227356,116.06518,81.30738,22.797035,21.669682,24.984425,17.039236,18.319958,13.121824,8.90601,8.531585,9.408559,9.632793,8.181839
107.wav,458.3823,111.71289,21.409334,21.943932,22.52136,2.758741,-8.138113,1.2781076,4.506358,0.92233884,-0.27660757,1.7131896,-2.0044897,117.05995,89.16525,19.31798,19.120625,19.434912,12.183259,17.974665,10.943245,7.440807,7.523359,7.793539,6.8162785,9.058538
340.wav,-595.28894,115.59997,26.064331,32.590473,12.9389305,7.5888696,-8.973809,4.737013,3.2265089,-0.21529794,-3.7403047,3.5194144,-1.1119504,119.1748,80.955376,25.731232,22.818743,20.767185,12.221648,16.95391,13.390911,8.156791,8.754367,9.015807,7.432646,7.7444835
236.wav,576.3296,156.6387,-3.5672927,14.035472,35.472454,4.376214,-14.834677,-4.8339663,-0.32211864,-4.191407,-3.4139566,-5.4064746,-2.8624187,113.6968,82.870094,26.155977,21.519157,22.69517,12.240548,13.588968,8.708581,11.134847,8.79819,12.237436,9.744745,9.084897
11.wav,444.16068,93.78109,13.912926,27.24044,10.528018,2.8926022,-3.7805958,5.6837854,-6.310593,6.9553604,-4.181731,9.240172,-4.3577647,122.04274,76.51133,21.88087,15.933983,14.317892,14.207337,14.037059,8.789306,7.972585,9.353737,8.039136,7.3905387,8.677265
104.wav,433.61127,111.2927,18.976324,35.46876,15.602371,2.190453,-6.6313624,10.177987,4.044783,1.4633261,-4.7938185,5.1916614,1.0537615,123.356346,81.31127,25.233953,22.02568,18.66537,16.738396,16.415213,10.605186,6.8580637,8.6949415,10.176214,9.613818,9.110914
254.wav,441.12622,123.89928,29.112041,25.13653,13.56502,8.786518,-5.7796493,0.7967315,0.005062246,-3.801502,-5.3763847,1.9530771,-0.9146149,117.75744,88.23446,26.456305,20.819921,18.373968,10.786766,13.174946,9.240317,8.007105,9.283838,7.9996443,9.277112,9.550435
281.wav,442.7227,126.70488,34.431988,25.504059,2.415526,-3.6511204,-6.1310806,6.266297,2.6604924,-1.8121784,-3.2067504,3.7763581,-0.15815745,115.43491,87.66743,32.423492,17.968468,18.27985,18.627462,13.672971,9.777541,9.569958,12.184491,9.713863,7.445825,7.784711
233.wav,623.0658,188.86012,15.930782,-7.439949,18.477903,7.2567773,-6.934777,-1.4656898,2.6040282,-4.2950706,-3.5521033,2.696303,-1.4662665,88.29497,72.3274,14.608697,11.054095,13.240554,10.211708,7.384923,10.813872,9.302864,7.882496,7.677688,8.50783,7.819983
343.wav,-557.5184,121.09598,38.873825,18.867628,2.2857962,-7.6152606,-5.187262,5.559815,6.9186754,0.90981066,-0.6671996,3.169404,1.9558108,101.65545,85.26098,29.644567,17.655325,17.148455,17.227259,11.729345,10.622122,8.531758,6.007317,6.8030705,7.141517,5.895625
293.wav,471.6703,126.94775,25.519588,25.93552,22.142803,3.517129,-10.465116,-2.701139,3.949306,-2.4521627,-6.210136,-0.02823997,-1.7845469,110.7217,85.133064,28.847328,26.134521,22.63484,11.181359,15.412667,11.922907,9.363083,10.216815,12.633158,8.087027,7.6845903
110.wav,478.68414,99.20192,18.43683,21.783697,12.727465,1.8954378,0.030976813,2.5971472,-4.380282,-0.2464418,-1.4099618,2.7222264,-1.8481475,110.86191,78.35808,23.899893,20.42297,17.225517,14.86646,13.466508,12.048806,12.605841,7.9744563,9.727212,7.1560917,8.3491955
284.wav,453.11636,117.25634,8.122411,22.481771,22.133505,1.8106446,-12.096037,-1.4777879,-2.127071,-0.6758387,-1.9806806,1.6275837,-0.056486394,139.7948,92.18016,21.819914,17.670029,18.504835,13.167971,19.008345,9.805158,8.813035,8.70811,8.311151,7.29911,8.82957
266.wav,442.0292,120.62096,25.182219,29.815056,21.208786,10.463571,-12.197778,-3.2447226,2.013779,1.8273588,-3.7868583,-1.4276582,-4.886231,120.65284,84.13215,24.351162,20.670258,19.636478,11.105867,19.11184,12.866723,8.948392,6.955986,8.021729,6.3911223,6.584315
354.wav,-548.78796,119.166534,25.046013,29.271774,16.915674,-6.6083593,-9.595212,2.76357,-1.598148,-4.706718,-4.708168,-1.8613588,-1.7346601,109.63028,83.79283,28.25478,22.266018,20.600035,15.909174,17.451433,13.41006,9.343595,9.491783,8.855511,9.613713,8.978054
317.wav,440.9015,103.62592,17.095993,18.29685,12.657458,3.8828597,-5.6987576,0.6258671,6.646649,1.572294,-3.31922,2.4550054,0.95250255,118.42417,85.799545,26.558887,19.271255,16.064104,10.752263,14.726227,12.66931,7.662755,8.442799,10.935822,7.863362,7.8454614
269.wav,415.72345,92.688255,24.930597,25.232655,15.012803,6.0458164,-5.058826,3.442894,6.665846,3.4352274,-2.2059064,2.4864476,1.4377004,111.74714,82.74551,27.474304,18.115803,16.67055,11.019505,17.137678,9.531819,7.76044,7.665412,9.658745,7.3424525,5.8762355
355.wav,-559.827,127.50975,21.222006,27.999842,21.720718,7.2838883,-15.038146,-3.4109597,4.5495105,0.28575736,-5.942135,2.245136,1.6587344,120.24369,83.89077,28.69587,21.333998,20.663532,12.379546,21.515017,15.250049,9.589432,9.677704,9.278981,9.684307,7.8045073
287.wav,427.65225,102.97294,13.433368,30.571276,9.191256,-4.998939,-6.628704,5.690886,-0.2419961,-0.6471371,-4.1120596,3.177997,1.6642016,133.05133,87.03717,32.320747,21.388397,18.937145,19.235308,11.239213,9.227756,6.842181,14.999786,7.9699717,7.7817245,5.943309
272.wav,459.28693,122.125595,21.909433,30.879295,9.631942,-1.1994604,-7.970091,1.4505407,-0.44000718,-7.4357295,-2.3906162,9.239925,0.2748681,114.4509,83.67847,32.152245,22.1849,19.410254,13.774942,12.398279,11.387412,9.318945,11.545187,9.295032,9.1384115,6.379762
329.wav,477.61838,116.27761,9.559819,26.76232,24.41195,-5.3742003,-13.9906435,3.32788,3.9962585,-0.7405197,-4.451403,0.4060157,1.1834687,105.95421,76.28757,30.061253,26.685598,24.852787,16.760191,18.510164,10.396129,10.53533,8.060347,10.742627,7.955421,6.9330745
352.wav,-548.5921,118.70827,24.822016,28.968609,16.822142,-6.7622423,-9.597281,2.6979012,-1.6095694,-4.7715297,-4.7356625,-1.8802346,-1.7207932,109.45702,84.03577,28.317532,22.379747,20.654741,15.78477,17.307268,13.346594,9.225985,9.422862,8.8201275,9.629562,9.015742
248.wav,442.5338,119.59367,25.683851,25.720455,6.9289026,-1.1775559,-8.331078,4.534379,6.061574,-1.8065271,-3.283677,6.1986327,0.13422339,118.77795,86.98816,29.945404,18.920965,17.666367,15.717327,13.993911,10.16806,7.8201394,12.118248,8.895328,8.564166,6.2815847
323.wav,464.43857,117.12248,16.636526,32.237476,16.064074,-3.782876,-5.5146365,4.1680264,-2.9094725,-4.1954994,-2.4365764,1.5076414,-3.0556188,117.82025,82.0337,25.627193,22.140446,17.357805,16.018661,14.356262,11.701173,11.289734,10.606586,9.806972,8.8662615,8.435438
278.wav,460.15344,124.68597,6.5034347,24.58388,15.20477,0.45596567,-7.537406,0.57247955,-2.7589557,0.87612903,-3.1510477,3.3821263,1.0038208,121.67046,80.75682,32.977608,21.64497,17.473969,14.709812,13.809725,7.271902,6.9915395,9.328335,8.688131,7.99513,7.905091
245.wav,449.34717,127.07311,22.756083,31.613985,3.813784,-7.713069,-7.9808598,9.240785,2.561904,1.6365178,-4.5544786,2.3086116,2.1165183,124.17965,84.12035,25.343716,24.00205,18.487795,20.08046,13.751619,10.324239,10.357002,7.2892427,9.109098,8.041236,7.4236917
263.wav,451.36362,124.58111,23.81762,18.90992,16.130323,7.633664,-6.4570727,-0.99390423,-1.6437234,-2.307903,-0.18690453,5.01648,-2.2414293,120.338066,89.51682,21.94927,18.815987,19.026709,10.47947,14.924548,9.958044,7.8904686,8.378636,6.942391,7.7115602,6.9152756
308.wav,428.85535,110.012,37.598003,20.998112,5.527598,1.4492906,-2.957326,2.7507465,0.46507755,0.69672793,0.85205907,0.46477297,-2.20584,105.334564,85.785126,32.369587,21.646214,19.470695,17.417921,12.700865,9.74686,7.749247,8.028246,7.2587447,7.9504714,7.5210824
251.wav,442.3828,117.425865,25.090315,23.301655,14.550742,6.019376,-7.561594,0.4177795,2.931927,-1.3360137,-2.9618146,3.2481673,0.26312205,117.8329,87.599525,23.024792,18.242556,14.6159935,9.784109,13.252927,8.925146,6.5374346,9.489898,9.107167,5.6823688,6.6788006
275.wav,424.46954,108.738014,32.68619,28.403662,6.2966814,1.8088906,-4.549304,4.3293457,1.0938423,-2.4187162,-3.1780047,2.823945,-0.3732487,109.293274,83.74231,32.377346,20.737366,16.407593,15.064591,11.458565,8.268752,8.481091,10.620383,8.737587,5.3848605,6.931563
302.wav,446.9483,114.02994,27.039692,23.620226,21.380663,6.3346977,-9.632153,-3.4373143,-0.7564386,-4.008345,-1.5993447,4.058332,-0.5728654,105.338905,81.11132,22.822767,22.611664,18.831966,9.41396,16.4539,10.144526,7.8754387,11.321119,10.830994,8.775848,7.444086
242.wav,439.5277,114.81388,33.452015,25.225489,13.661586,3.8945131,-6.407503,2.2437916,2.83385,-2.3799243,-4.9182463,0.6128387,-1.8038929,110.39689,86.4905,27.116913,20.207117,19.811998,12.28364,17.79214,12.193787,7.2036815,9.8615885,9.739695,8.700991,9.309036
357.wav,-560.01483,127.79751,21.290802,28.221785,21.756561,7.4000287,-15.094489,-3.3730204,4.51568,0.34071395,-5.94621,2.2165475,1.6175013,120.31314,83.673676,28.661379,21.267145,20.611233,12.344052,21.54407,15.293538,9.580027,9.675256,9.300788,9.673716,7.819113
305.wav,438.26474,109.535835,19.138405,26.425009,10.944732,3.5255795,-6.776218,4.033403,3.7003012,-1.7520901,-2.7853563,6.0373845,2.1905735,122.98185,85.95403,31.27655,21.901089,16.01661,11.820881,14.87421,9.168021,7.2177153,8.878025,9.262809,8.806819,8.059378
347.wav,430.69684,107.01742,18.503775,25.46874,14.911357,-1.3045456,-11.574901,2.3047538,1.6523963,0.98232,-2.1695623,-0.3868216,-1.9228965,116.06525,81.30746,22.797081,21.669756,24.984465,17.039183,18.319832,13.1218195,8.905946,8.531575,9.408597,9.632782,8.181765
1.wav,-590.4722,95.99864,17.451824,27.888855,7.6304245,-0.3904707,-1.3859684,6.554316,-4.7249207,6.6624403,-2.6582084,4.0703883,-1.0705097,125.259254,79.75849,26.35114,20.156418,15.487876,14.189627,10.956587,9.71629,8.049373,7.289741,7.474238,7.4110684,6.6462417
299.wav,450.25293,123.18689,16.631868,23.782965,14.621762,3.2282186,-11.97114,2.7671435,2.975765,-3.4444869,-3.6664305,5.876794,1.8513889,124.7349,88.57222,22.050745,20.507233,17.056078,12.070651,18.248957,11.052975,6.7896247,10.183979,9.273663,10.550859,7.5675793
314.wav,433.33688,115.73353,35.16112,24.074635,11.690688,9.10554,-2.5024114,-0.530143,0.20366538,1.6333189,-2.8307526,-2.7373753,-3.7214768,112.02259,89.494064,24.696426,19.715408,18.999933,13.9403925,14.187139,12.510575,10.383174,8.036134,9.048392,8.010066,8.137784
344.wav,464.2112,121.09588,38.873745,18.86755,2.285697,-7.6153207,-5.1873126,5.5597568,6.918655,0.90972984,-0.66728944,3.169292,1.9557225,101.655556,85.26111,29.644629,17.655342,17.148417,17.22723,11.729294,10.622111,8.531806,6.007286,6.80303,7.1415105,5.895618
353.wav,473.13763,118.708145,24.821941,28.968586,16.822044,-6.7623243,-9.597388,2.6978211,-1.6096505,-4.7716017,-4.7357416,-1.8803265,-1.7208838,109.45709,84.03579,28.317585,22.379831,20.654718,15.784734,17.30722,13.346637,9.225995,9.422822,8.8201065,9.629573,9.015728
332.wav,452.64606,115.975105,20.349771,22.481678,11.680233,3.0629828,-4.5119743,4.898646,0.37664735,-2.2370906,-3.257714,5.3174386,0.5953538,119.11864,86.169655,26.252434,20.73259,17.174417,11.375305,13.500853,8.136951,8.6729355,7.6689415,8.7096815,8.637472,7.4143953
350.wav,454.68158,114.69486,14.531532,23.701935,17.820898,-0.8106418,-10.490062,2.3339703,1.1804491,1.1869024,-4.518281,-0.75682926,-0.0068533886,124.0904,87.189384,29.167603,20.571117,19.635902,12.570238,16.302559,10.855447,10.181429,9.448773,9.187111,7.3510447,8.890163
